solver_type L2R_L2LOSS_SVC_DUAL
nr_class 2
label 1 0
nr_feature 79
bias -1
w
0.04857408464474068 
0.05817040528797521 
0.0619928511149995 
-0.01122159462854677 
-0.5247962868007386 
-0.03350106357775764 
-0.06256979348409705 
-0.02644032500799948 
0.157666391208378 
0.09852887974293165 
0.07009096850705654 
0.05834229389477391 
0.04535849118853955 
0.06869110511566805 
0.07226116510609697 
0.03359602046405455 
0.04037492383941342 
-0.09994059272256359 
0.04682180288927501 
0.07899072995534072 
0.07852501646382631 
0 
0.003365946516776495 
0.01963213890784279 
0.2820617873303687 
-0.05195148431508509 
-0.1233890593074413 
0.1114647136819143 
-0.06574152668314623 
0.06563902032279992 
0.2178297187393177 
0.1878004891041455 
0.09608198869255781 
-0.08308158329638005 
-0.8677969655289152 
0.2503646469283549 
-0.07593543624225055 
-0.279469022716171 
0.149572168216667 
0 
0.150820147131856 
-0.03003087360345436 
0.4264941251225431 
0.2415469302156243 
0.4256948100580904 
0.02416306093315906 
0 
-0.9142540472732271 
-0.169033239877476 
0.1598390587454549 
0.04559647015772957 
-0.05652280082562952 
0.1229095790325707 
0.1538792516086376 
-0.08602762242646916 
-0.01312494999566002 
0.2864670838712456 
-0.052284711930368 
0.2868442215333678 
-0.08564396159924677 
-0.04170472476278744 
-0.07033957713311169 
-0.1280575054098551 
-0.0447839847543508 
-0.1920262330895355 
0.2831808863065138 
0.24240295256953 
0 
-0.5227457314963517 
0 
0.1962070323140944 
0.0352446404611621 
0.04024173861687652 
0.07040886739627317 
0 
0.1330425916094849 
-0.05456561883854184 
-0.2324419899827708 
0.1655855171566755 
